digraph Tree {
node [shape=box, style="filled, rounded", color="black", fontname=helvetica] ;
edge [fontname=helvetica] ;
0 [label="X[12] <= 402.883\ngini = 0.667\nsamples = 7401\nvalue = [3971, 3838, 3931]", fillcolor="#fffefe"] ;
1 [label="X[12] <= -449.719\ngini = 0.649\nsamples = 6390\nvalue = [3919, 2273, 3931]", fillcolor="#ffffff"] ;
0 -> 1 [labeldistance=2.5, labelangle=45, headlabel="True"] ;
2 [label="X[9] <= 54590.5\ngini = 0.055\nsamples = 956\nvalue = [42, 1448, 0]", fillcolor="#3fe685"] ;
1 -> 2 ;
3 [label="X[3] <= 17.402\ngini = 0.085\nsamples = 608\nvalue = [42, 898, 0]", fillcolor="#42e687"] ;
2 -> 3 ;
4 [label="X[3] <= 17.308\ngini = 0.475\nsamples = 64\nvalue = [38, 60, 0]", fillcolor="#b6f5d1"] ;
3 -> 4 ;
5 [label="X[12] <= -824.652\ngini = 0.456\nsamples = 58\nvalue = [32, 59, 0]", fillcolor="#a4f3c5"] ;
4 -> 5 ;
6 [label="gini = 0.0\nsamples = 21\nvalue = [0, 36, 0]", fillcolor="#39e581"] ;
5 -> 6 ;
7 [label="X[10] <= 511.5\ngini = 0.487\nsamples = 37\nvalue = [32, 23, 0]", fillcolor="#f8dcc7"] ;
5 -> 7 ;
8 [label="X[11] <= -643.135\ngini = 0.439\nsamples = 30\nvalue = [29, 14, 0]", fillcolor="#f2be99"] ;
7 -> 8 ;
9 [label="X[9] <= 52718.5\ngini = 0.245\nsamples = 4\nvalue = [1, 6, 0]", fillcolor="#5ae996"] ;
8 -> 9 ;
10 [label="gini = 0.0\nsamples = 1\nvalue = [1, 0, 0]", fillcolor="#e58139"] ;
9 -> 10 ;
11 [label="gini = 0.0\nsamples = 3\nvalue = [0, 6, 0]", fillcolor="#39e581"] ;
9 -> 11 ;
12 [label="X[0] <= 18.486\ngini = 0.346\nsamples = 26\nvalue = [28, 8, 0]", fillcolor="#eca572"] ;
8 -> 12 ;
13 [label="gini = 0.0\nsamples = 3\nvalue = [0, 3, 0]", fillcolor="#39e581"] ;
12 -> 13 ;
14 [label="X[13] <= 462.538\ngini = 0.257\nsamples = 23\nvalue = [28, 5, 0]", fillcolor="#ea985c"] ;
12 -> 14 ;
15 [label="X[13] <= 111.287\ngini = 0.124\nsamples = 20\nvalue = [28, 2, 0]", fillcolor="#e78a47"] ;
14 -> 15 ;
16 [label="X[9] <= 54571.0\ngini = 0.375\nsamples = 6\nvalue = [6, 2, 0]", fillcolor="#eeab7b"] ;
15 -> 16 ;
17 [label="gini = 0.0\nsamples = 5\nvalue = [6, 0, 0]", fillcolor="#e58139"] ;
16 -> 17 ;
18 [label="gini = 0.0\nsamples = 1\nvalue = [0, 2, 0]", fillcolor="#39e581"] ;
16 -> 18 ;
19 [label="gini = 0.0\nsamples = 14\nvalue = [22, 0, 0]", fillcolor="#e58139"] ;
15 -> 19 ;
20 [label="gini = 0.0\nsamples = 3\nvalue = [0, 3, 0]", fillcolor="#39e581"] ;
14 -> 20 ;
21 [label="X[7] <= 235.0\ngini = 0.375\nsamples = 7\nvalue = [3, 9, 0]", fillcolor="#7beeab"] ;
7 -> 21 ;
22 [label="X[2] <= 17.248\ngini = 0.18\nsamples = 5\nvalue = [1, 9, 0]", fillcolor="#4fe88f"] ;
21 -> 22 ;
23 [label="gini = 0.0\nsamples = 1\nvalue = [1, 0, 0]", fillcolor="#e58139"] ;
22 -> 23 ;
24 [label="gini = 0.0\nsamples = 4\nvalue = [0, 9, 0]", fillcolor="#39e581"] ;
22 -> 24 ;
25 [label="gini = 0.0\nsamples = 2\nvalue = [2, 0, 0]", fillcolor="#e58139"] ;
21 -> 25 ;
26 [label="X[0] <= 18.514\ngini = 0.245\nsamples = 6\nvalue = [6, 1, 0]", fillcolor="#e9965a"] ;
4 -> 26 ;
27 [label="gini = 0.0\nsamples = 1\nvalue = [0, 1, 0]", fillcolor="#39e581"] ;
26 -> 27 ;
28 [label="gini = 0.0\nsamples = 5\nvalue = [6, 0, 0]", fillcolor="#e58139"] ;
26 -> 28 ;
29 [label="X[9] <= 53794.5\ngini = 0.009\nsamples = 544\nvalue = [4, 838, 0]", fillcolor="#3ae582"] ;
3 -> 29 ;
30 [label="gini = 0.0\nsamples = 376\nvalue = [0, 579, 0]", fillcolor="#39e581"] ;
29 -> 30 ;
31 [label="X[2] <= 18.682\ngini = 0.03\nsamples = 168\nvalue = [4, 259, 0]", fillcolor="#3ce583"] ;
29 -> 31 ;
32 [label="X[1] <= 19.008\ngini = 0.06\nsamples = 83\nvalue = [4, 126, 0]", fillcolor="#3fe685"] ;
31 -> 32 ;
33 [label="X[5] <= 4647.5\ngini = 0.031\nsamples = 81\nvalue = [2, 125, 0]", fillcolor="#3ce583"] ;
32 -> 33 ;
34 [label="X[1] <= 18.905\ngini = 0.1\nsamples = 26\nvalue = [2, 36, 0]", fillcolor="#44e688"] ;
33 -> 34 ;
35 [label="X[13] <= 283.27\ngini = 0.053\nsamples = 25\nvalue = [1, 36, 0]", fillcolor="#3ee684"] ;
34 -> 35 ;
36 [label="X[3] <= 17.77\ngini = 0.32\nsamples = 4\nvalue = [1, 4, 0]", fillcolor="#6aeca0"] ;
35 -> 36 ;
37 [label="gini = 0.0\nsamples = 2\nvalue = [0, 3, 0]", fillcolor="#39e581"] ;
36 -> 37 ;
38 [label="X[2] <= 18.118\ngini = 0.5\nsamples = 2\nvalue = [1, 1, 0]", fillcolor="#ffffff"] ;
36 -> 38 ;
39 [label="gini = 0.0\nsamples = 1\nvalue = [0, 1, 0]", fillcolor="#39e581"] ;
38 -> 39 ;
40 [label="gini = 0.0\nsamples = 1\nvalue = [1, 0, 0]", fillcolor="#e58139"] ;
38 -> 40 ;
41 [label="gini = 0.0\nsamples = 21\nvalue = [0, 32, 0]", fillcolor="#39e581"] ;
35 -> 41 ;
42 [label="gini = 0.0\nsamples = 1\nvalue = [1, 0, 0]", fillcolor="#e58139"] ;
34 -> 42 ;
43 [label="gini = 0.0\nsamples = 55\nvalue = [0, 89, 0]", fillcolor="#39e581"] ;
33 -> 43 ;
44 [label="X[2] <= 18.665\ngini = 0.444\nsamples = 2\nvalue = [2, 1, 0]", fillcolor="#f2c09c"] ;
32 -> 44 ;
45 [label="gini = 0.0\nsamples = 1\nvalue = [0, 1, 0]", fillcolor="#39e581"] ;
44 -> 45 ;
46 [label="gini = 0.0\nsamples = 1\nvalue = [2, 0, 0]", fillcolor="#e58139"] ;
44 -> 46 ;
47 [label="gini = 0.0\nsamples = 85\nvalue = [0, 133, 0]", fillcolor="#39e581"] ;
31 -> 47 ;
48 [label="gini = 0.0\nsamples = 348\nvalue = [0, 550, 0]", fillcolor="#39e581"] ;
2 -> 48 ;
49 [label="X[13] <= 1.961\ngini = 0.582\nsamples = 5434\nvalue = [3877, 825, 3931]", fillcolor="#fefdff"] ;
1 -> 49 ;
50 [label="X[13] <= -3.287\ngini = 0.198\nsamples = 2792\nvalue = [398, 83, 3913]", fillcolor="#9051e8"] ;
49 -> 50 ;
51 [label="X[13] <= -75.875\ngini = 0.442\nsamples = 247\nvalue = [271, 75, 33]", fillcolor="#eeae7f"] ;
50 -> 51 ;
52 [label="X[4] <= 17.439\ngini = 0.163\nsamples = 36\nvalue = [5, 51, 0]", fillcolor="#4ce88d"] ;
51 -> 52 ;
53 [label="X[8] <= 3923.5\ngini = 0.32\nsamples = 4\nvalue = [4, 1, 0]", fillcolor="#eca06a"] ;
52 -> 53 ;
54 [label="gini = 0.0\nsamples = 3\nvalue = [4, 0, 0]", fillcolor="#e58139"] ;
53 -> 54 ;
55 [label="gini = 0.0\nsamples = 1\nvalue = [0, 1, 0]", fillcolor="#39e581"] ;
53 -> 55 ;
56 [label="X[10] <= 17.0\ngini = 0.038\nsamples = 32\nvalue = [1, 50, 0]", fillcolor="#3de684"] ;
52 -> 56 ;
57 [label="gini = 0.0\nsamples = 1\nvalue = [1, 0, 0]", fillcolor="#e58139"] ;
56 -> 57 ;
58 [label="gini = 0.0\nsamples = 31\nvalue = [0, 50, 0]", fillcolor="#39e581"] ;
56 -> 58 ;
59 [label="X[8] <= 1834.5\ngini = 0.306\nsamples = 211\nvalue = [266, 24, 33]", fillcolor="#ea9a60"] ;
51 -> 59 ;
60 [label="X[7] <= 12.5\ngini = 0.138\nsamples = 170\nvalue = [240, 12, 7]", fillcolor="#e78b48"] ;
59 -> 60 ;
61 [label="gini = 0.0\nsamples = 1\nvalue = [0, 2, 0]", fillcolor="#39e581"] ;
60 -> 61 ;
62 [label="X[2] <= 18.398\ngini = 0.126\nsamples = 169\nvalue = [240, 10, 7]", fillcolor="#e78a47"] ;
60 -> 62 ;
63 [label="X[11] <= -912.217\ngini = 0.07\nsamples = 163\nvalue = [240, 6, 3]", fillcolor="#e68640"] ;
62 -> 63 ;
64 [label="gini = 0.0\nsamples = 1\nvalue = [0, 2, 0]", fillcolor="#39e581"] ;
63 -> 64 ;
65 [label="X[13] <= -3.361\ngini = 0.055\nsamples = 162\nvalue = [240, 4, 3]", fillcolor="#e6853f"] ;
63 -> 65 ;
66 [label="X[1] <= 18.108\ngini = 0.033\nsamples = 159\nvalue = [235, 4, 0]", fillcolor="#e5833c"] ;
65 -> 66 ;
67 [label="gini = 0.0\nsamples = 131\nvalue = [200, 0, 0]", fillcolor="#e58139"] ;
66 -> 67 ;
68 [label="X[3] <= 16.89\ngini = 0.184\nsamples = 28\nvalue = [35, 4, 0]", fillcolor="#e88f50"] ;
66 -> 68 ;
69 [label="gini = 0.0\nsamples = 1\nvalue = [0, 1, 0]", fillcolor="#39e581"] ;
68 -> 69 ;
70 [label="X[12] <= 280.02\ngini = 0.145\nsamples = 27\nvalue = [35, 3, 0]", fillcolor="#e78c4a"] ;
68 -> 70 ;
71 [label="X[0] <= 19.114\ngini = 0.102\nsamples = 26\nvalue = [35, 2, 0]", fillcolor="#e68844"] ;
70 -> 71 ;
72 [label="gini = 0.0\nsamples = 2\nvalue = [0, 2, 0]", fillcolor="#39e581"] ;
71 -> 72 ;
73 [label="gini = 0.0\nsamples = 24\nvalue = [35, 0, 0]", fillcolor="#e58139"] ;
71 -> 73 ;
74 [label="gini = 0.0\nsamples = 1\nvalue = [0, 1, 0]", fillcolor="#39e581"] ;
70 -> 74 ;
75 [label="X[10] <= 225.5\ngini = 0.469\nsamples = 3\nvalue = [5, 0, 3]", fillcolor="#f5cdb0"] ;
65 -> 75 ;
76 [label="gini = 0.0\nsamples = 1\nvalue = [0, 0, 3]", fillcolor="#8139e5"] ;
75 -> 76 ;
77 [label="gini = 0.0\nsamples = 2\nvalue = [5, 0, 0]", fillcolor="#e58139"] ;
75 -> 77 ;
78 [label="X[13] <= -16.366\ngini = 0.5\nsamples = 6\nvalue = [0, 4, 4]", fillcolor="#ffffff"] ;
62 -> 78 ;
79 [label="gini = 0.0\nsamples = 3\nvalue = [0, 4, 0]", fillcolor="#39e581"] ;
78 -> 79 ;
80 [label="gini = 0.0\nsamples = 3\nvalue = [0, 0, 4]", fillcolor="#8139e5"] ;
78 -> 80 ;
81 [label="X[3] <= 16.104\ngini = 0.635\nsamples = 41\nvalue = [26, 12, 26]", fillcolor="#ffffff"] ;
59 -> 81 ;
82 [label="X[1] <= 16.225\ngini = 0.137\nsamples = 16\nvalue = [25, 0, 2]", fillcolor="#e78b49"] ;
81 -> 82 ;
83 [label="gini = 0.0\nsamples = 2\nvalue = [0, 0, 2]", fillcolor="#8139e5"] ;
82 -> 83 ;
84 [label="gini = 0.0\nsamples = 14\nvalue = [25, 0, 0]", fillcolor="#e58139"] ;
82 -> 84 ;
85 [label="X[11] <= 395.883\ngini = 0.473\nsamples = 25\nvalue = [1, 12, 24]", fillcolor="#c3a0f3"] ;
81 -> 85 ;
86 [label="X[11] <= -314.33\ngini = 0.203\nsamples = 18\nvalue = [1, 2, 24]", fillcolor="#9051e8"] ;
85 -> 86 ;
87 [label="gini = 0.0\nsamples = 2\nvalue = [0, 2, 0]", fillcolor="#39e581"] ;
86 -> 87 ;
88 [label="X[11] <= 177.519\ngini = 0.077\nsamples = 16\nvalue = [1, 0, 24]", fillcolor="#8641e6"] ;
86 -> 88 ;
89 [label="gini = 0.0\nsamples = 15\nvalue = [0, 0, 24]", fillcolor="#8139e5"] ;
88 -> 89 ;
90 [label="gini = 0.0\nsamples = 1\nvalue = [1, 0, 0]", fillcolor="#e58139"] ;
88 -> 90 ;
91 [label="gini = 0.0\nsamples = 7\nvalue = [0, 10, 0]", fillcolor="#39e581"] ;
85 -> 91 ;
92 [label="X[5] <= 1407.5\ngini = 0.065\nsamples = 2545\nvalue = [127, 8, 3880]", fillcolor="#8540e6"] ;
50 -> 92 ;
93 [label="X[12] <= -31.298\ngini = 0.23\nsamples = 210\nvalue = [41, 2, 284]", fillcolor="#9457e9"] ;
92 -> 93 ;
94 [label="gini = 0.0\nsamples = 21\nvalue = [34, 0, 0]", fillcolor="#e58139"] ;
93 -> 94 ;
95 [label="X[0] <= 18.756\ngini = 0.06\nsamples = 189\nvalue = [7, 2, 284]", fillcolor="#853fe6"] ;
93 -> 95 ;
96 [label="X[10] <= 196.5\ngini = 0.022\nsamples = 118\nvalue = [2, 0, 181]", fillcolor="#823be5"] ;
95 -> 96 ;
97 [label="X[11] <= -71.845\ngini = 0.068\nsamples = 39\nvalue = [2, 0, 55]", fillcolor="#8640e6"] ;
96 -> 97 ;
98 [label="gini = 0.0\nsamples = 1\nvalue = [1, 0, 0]", fillcolor="#e58139"] ;
97 -> 98 ;
99 [label="X[10] <= 187.0\ngini = 0.035\nsamples = 38\nvalue = [1, 0, 55]", fillcolor="#833de5"] ;
97 -> 99 ;
100 [label="gini = 0.0\nsamples = 35\nvalue = [0, 0, 53]", fillcolor="#8139e5"] ;
99 -> 100 ;
101 [label="X[11] <= -0.075\ngini = 0.444\nsamples = 3\nvalue = [1, 0, 2]", fillcolor="#c09cf2"] ;
99 -> 101 ;
102 [label="gini = 0.0\nsamples = 2\nvalue = [0, 0, 2]", fillcolor="#8139e5"] ;
101 -> 102 ;
103 [label="gini = 0.0\nsamples = 1\nvalue = [1, 0, 0]", fillcolor="#e58139"] ;
101 -> 103 ;
104 [label="gini = 0.0\nsamples = 79\nvalue = [0, 0, 126]", fillcolor="#8139e5"] ;
96 -> 104 ;
105 [label="X[11] <= -162.353\ngini = 0.121\nsamples = 71\nvalue = [5, 2, 103]", fillcolor="#8946e7"] ;
95 -> 105 ;
106 [label="gini = 0.0\nsamples = 2\nvalue = [3, 0, 0]", fillcolor="#e58139"] ;
105 -> 106 ;
107 [label="X[0] <= 18.772\ngini = 0.073\nsamples = 69\nvalue = [2, 2, 103]", fillcolor="#8641e6"] ;
105 -> 107 ;
108 [label="gini = 0.0\nsamples = 1\nvalue = [0, 2, 0]", fillcolor="#39e581"] ;
107 -> 108 ;
109 [label="X[5] <= 1270.5\ngini = 0.037\nsamples = 68\nvalue = [2, 0, 103]", fillcolor="#833de6"] ;
107 -> 109 ;
110 [label="gini = 0.0\nsamples = 59\nvalue = [0, 0, 95]", fillcolor="#8139e5"] ;
109 -> 110 ;
111 [label="X[0] <= 18.826\ngini = 0.32\nsamples = 9\nvalue = [2, 0, 8]", fillcolor="#a06aec"] ;
109 -> 111 ;
112 [label="gini = 0.0\nsamples = 1\nvalue = [2, 0, 0]", fillcolor="#e58139"] ;
111 -> 112 ;
113 [label="gini = 0.0\nsamples = 8\nvalue = [0, 0, 8]", fillcolor="#8139e5"] ;
111 -> 113 ;
114 [label="X[13] <= 0.696\ngini = 0.049\nsamples = 2335\nvalue = [86, 6, 3596]", fillcolor="#843ee6"] ;
92 -> 114 ;
115 [label="X[13] <= -2.263\ngini = 0.035\nsamples = 2219\nvalue = [61, 2, 3438]", fillcolor="#833de5"] ;
114 -> 115 ;
116 [label="X[2] <= 15.939\ngini = 0.236\nsamples = 79\nvalue = [14, 1, 96]", fillcolor="#9458e9"] ;
115 -> 116 ;
117 [label="X[8] <= 967.5\ngini = 0.42\nsamples = 7\nvalue = [7, 0, 3]", fillcolor="#f0b78e"] ;
116 -> 117 ;
118 [label="gini = 0.0\nsamples = 4\nvalue = [7, 0, 0]", fillcolor="#e58139"] ;
117 -> 118 ;
119 [label="gini = 0.0\nsamples = 3\nvalue = [0, 0, 3]", fillcolor="#8139e5"] ;
117 -> 119 ;
120 [label="X[9] <= 52259.0\ngini = 0.147\nsamples = 72\nvalue = [7, 1, 93]", fillcolor="#8c4ae7"] ;
116 -> 120 ;
121 [label="X[4] <= 16.393\ngini = 0.375\nsamples = 4\nvalue = [3, 1, 0]", fillcolor="#eeab7b"] ;
120 -> 121 ;
122 [label="gini = 0.0\nsamples = 1\nvalue = [0, 1, 0]", fillcolor="#39e581"] ;
121 -> 122 ;
123 [label="gini = 0.0\nsamples = 3\nvalue = [3, 0, 0]", fillcolor="#e58139"] ;
121 -> 123 ;
124 [label="X[11] <= -34.253\ngini = 0.079\nsamples = 68\nvalue = [4, 0, 93]", fillcolor="#8642e6"] ;
120 -> 124 ;
125 [label="gini = 0.0\nsamples = 1\nvalue = [2, 0, 0]", fillcolor="#e58139"] ;
124 -> 125 ;
126 [label="X[11] <= 58.616\ngini = 0.041\nsamples = 67\nvalue = [2, 0, 93]", fillcolor="#843de6"] ;
124 -> 126 ;
127 [label="gini = 0.0\nsamples = 65\nvalue = [0, 0, 93]", fillcolor="#8139e5"] ;
126 -> 127 ;
128 [label="gini = 0.0\nsamples = 2\nvalue = [2, 0, 0]", fillcolor="#e58139"] ;
126 -> 128 ;
129 [label="X[3] <= 14.107\ngini = 0.028\nsamples = 2140\nvalue = [47, 1, 3342]", fillcolor="#833ce5"] ;
115 -> 129 ;
130 [label="X[8] <= 1564.5\ngini = 0.18\nsamples = 25\nvalue = [4, 0, 36]", fillcolor="#8f4fe8"] ;
129 -> 130 ;
131 [label="gini = 0.0\nsamples = 3\nvalue = [4, 0, 0]", fillcolor="#e58139"] ;
130 -> 131 ;
132 [label="gini = 0.0\nsamples = 22\nvalue = [0, 0, 36]", fillcolor="#8139e5"] ;
130 -> 132 ;
133 [label="X[0] <= 15.056\ngini = 0.026\nsamples = 2115\nvalue = [43, 1, 3306]", fillcolor="#833ce5"] ;
129 -> 133 ;
134 [label="X[4] <= 15.269\ngini = 0.48\nsamples = 3\nvalue = [2, 0, 3]", fillcolor="#d5bdf6"] ;
133 -> 134 ;
135 [label="gini = 0.0\nsamples = 1\nvalue = [2, 0, 0]", fillcolor="#e58139"] ;
134 -> 135 ;
136 [label="gini = 0.0\nsamples = 2\nvalue = [0, 0, 3]", fillcolor="#8139e5"] ;
134 -> 136 ;
137 [label="X[8] <= 419.5\ngini = 0.025\nsamples = 2112\nvalue = [41, 1, 3303]", fillcolor="#833ce5"] ;
133 -> 137 ;
138 [label="X[11] <= 12.584\ngini = 0.48\nsamples = 23\nvalue = [14, 0, 21]", fillcolor="#d5bdf6"] ;
137 -> 138 ;
139 [label="gini = 0.0\nsamples = 13\nvalue = [0, 0, 21]", fillcolor="#8139e5"] ;
138 -> 139 ;
140 [label="gini = 0.0\nsamples = 10\nvalue = [14, 0, 0]", fillcolor="#e58139"] ;
138 -> 140 ;
141 [label="X[11] <= 57.411\ngini = 0.017\nsamples = 2089\nvalue = [27, 1, 3282]", fillcolor="#823be5"] ;
137 -> 141 ;
142 [label="X[5] <= 1431.0\ngini = 0.013\nsamples = 2083\nvalue = [22, 0, 3282]", fillcolor="#823ae5"] ;
141 -> 142 ;
143 [label="X[9] <= 54021.5\ngini = 0.1\nsamples = 28\nvalue = [2, 0, 36]", fillcolor="#8844e6"] ;
142 -> 143 ;
144 [label="X[6] <= 4.0\ngini = 0.26\nsamples = 8\nvalue = [2, 0, 11]", fillcolor="#985dea"] ;
143 -> 144 ;
145 [label="gini = 0.0\nsamples = 3\nvalue = [0, 0, 7]", fillcolor="#8139e5"] ;
144 -> 145 ;
146 [label="X[1] <= 16.341\ngini = 0.444\nsamples = 5\nvalue = [2, 0, 4]", fillcolor="#c09cf2"] ;
144 -> 146 ;
147 [label="gini = 0.0\nsamples = 1\nvalue = [2, 0, 0]", fillcolor="#e58139"] ;
146 -> 147 ;
148 [label="gini = 0.0\nsamples = 4\nvalue = [0, 0, 4]", fillcolor="#8139e5"] ;
146 -> 148 ;
149 [label="gini = 0.0\nsamples = 20\nvalue = [0, 0, 25]", fillcolor="#8139e5"] ;
143 -> 149 ;
150 [label="X[13] <= -0.0\ngini = 0.012\nsamples = 2055\nvalue = [20, 0, 3246]", fillcolor="#823ae5"] ;
142 -> 150 ;
151 [label="gini = 0.0\nsamples = 1317\nvalue = [0, 0, 2096]", fillcolor="#8139e5"] ;
150 -> 151 ;
152 [label="X[13] <= 0.0\ngini = 0.034\nsamples = 738\nvalue = [20, 0, 1150]", fillcolor="#833ce5"] ;
150 -> 152 ;
153 [label="gini = 0.0\nsamples = 15\nvalue = [16, 0, 0]", fillcolor="#e58139"] ;
152 -> 153 ;
154 [label="X[12] <= -0.448\ngini = 0.007\nsamples = 723\nvalue = [4, 0, 1150]", fillcolor="#813ae5"] ;
152 -> 154 ;
155 [label="X[11] <= -0.114\ngini = 0.054\nsamples = 44\nvalue = [2, 0, 70]", fillcolor="#853fe6"] ;
154 -> 155 ;
156 [label="gini = 0.0\nsamples = 39\nvalue = [0, 0, 63]", fillcolor="#8139e5"] ;
155 -> 156 ;
157 [label="X[2] <= 16.596\ngini = 0.346\nsamples = 5\nvalue = [2, 0, 7]", fillcolor="#a572ec"] ;
155 -> 157 ;
158 [label="gini = 0.0\nsamples = 3\nvalue = [0, 0, 5]", fillcolor="#8139e5"] ;
157 -> 158 ;
159 [label="X[7] <= 72.5\ngini = 0.5\nsamples = 2\nvalue = [2, 0, 2]", fillcolor="#ffffff"] ;
157 -> 159 ;
160 [label="gini = 0.0\nsamples = 1\nvalue = [0, 0, 2]", fillcolor="#8139e5"] ;
159 -> 160 ;
161 [label="gini = 0.0\nsamples = 1\nvalue = [2, 0, 0]", fillcolor="#e58139"] ;
159 -> 161 ;
162 [label="X[0] <= 19.535\ngini = 0.004\nsamples = 679\nvalue = [2, 0, 1080]", fillcolor="#8139e5"] ;
154 -> 162 ;
163 [label="gini = 0.0\nsamples = 657\nvalue = [0, 0, 1046]", fillcolor="#8139e5"] ;
162 -> 163 ;
164 [label="X[0] <= 19.537\ngini = 0.105\nsamples = 22\nvalue = [2, 0, 34]", fillcolor="#8845e7"] ;
162 -> 164 ;
165 [label="gini = 0.0\nsamples = 1\nvalue = [2, 0, 0]", fillcolor="#e58139"] ;
164 -> 165 ;
166 [label="gini = 0.0\nsamples = 21\nvalue = [0, 0, 34]", fillcolor="#8139e5"] ;
164 -> 166 ;
167 [label="X[10] <= 103.5\ngini = 0.278\nsamples = 6\nvalue = [5, 1, 0]", fillcolor="#ea9a61"] ;
141 -> 167 ;
168 [label="gini = 0.0\nsamples = 1\nvalue = [0, 1, 0]", fillcolor="#39e581"] ;
167 -> 168 ;
169 [label="gini = 0.0\nsamples = 5\nvalue = [5, 0, 0]", fillcolor="#e58139"] ;
167 -> 169 ;
170 [label="X[11] <= 30.735\ngini = 0.268\nsamples = 116\nvalue = [25, 4, 158]", fillcolor="#985cea"] ;
114 -> 170 ;
171 [label="X[4] <= 15.082\ngini = 0.093\nsamples = 104\nvalue = [6, 2, 158]", fillcolor="#8743e6"] ;
170 -> 171 ;
172 [label="X[9] <= 55251.5\ngini = 0.602\nsamples = 7\nvalue = [5, 2, 7]", fillcolor="#e3d3f9"] ;
171 -> 172 ;
173 [label="X[2] <= 15.844\ngini = 0.346\nsamples = 5\nvalue = [0, 2, 7]", fillcolor="#a572ec"] ;
172 -> 173 ;
174 [label="gini = 0.0\nsamples = 4\nvalue = [0, 0, 7]", fillcolor="#8139e5"] ;
173 -> 174 ;
175 [label="gini = 0.0\nsamples = 1\nvalue = [0, 2, 0]", fillcolor="#39e581"] ;
173 -> 175 ;
176 [label="gini = 0.0\nsamples = 2\nvalue = [5, 0, 0]", fillcolor="#e58139"] ;
172 -> 176 ;
177 [label="X[8] <= 425.0\ngini = 0.013\nsamples = 97\nvalue = [1, 0, 151]", fillcolor="#823ae5"] ;
171 -> 177 ;
178 [label="gini = 0.0\nsamples = 1\nvalue = [1, 0, 0]", fillcolor="#e58139"] ;
177 -> 178 ;
179 [label="gini = 0.0\nsamples = 96\nvalue = [0, 0, 151]", fillcolor="#8139e5"] ;
177 -> 179 ;
180 [label="X[8] <= 5253.0\ngini = 0.172\nsamples = 12\nvalue = [19, 2, 0]", fillcolor="#e88e4e"] ;
170 -> 180 ;
181 [label="X[10] <= 449.5\ngini = 0.095\nsamples = 11\nvalue = [19, 1, 0]", fillcolor="#e68843"] ;
180 -> 181 ;
182 [label="X[7] <= 514.0\ngini = 0.444\nsamples = 2\nvalue = [2, 1, 0]", fillcolor="#f2c09c"] ;
181 -> 182 ;
183 [label="gini = 0.0\nsamples = 1\nvalue = [2, 0, 0]", fillcolor="#e58139"] ;
182 -> 183 ;
184 [label="gini = 0.0\nsamples = 1\nvalue = [0, 1, 0]", fillcolor="#39e581"] ;
182 -> 184 ;
185 [label="gini = 0.0\nsamples = 9\nvalue = [17, 0, 0]", fillcolor="#e58139"] ;
181 -> 185 ;
186 [label="gini = 0.0\nsamples = 1\nvalue = [0, 1, 0]", fillcolor="#39e581"] ;
180 -> 186 ;
187 [label="X[1] <= 18.361\ngini = 0.296\nsamples = 2642\nvalue = [3479, 742, 18]", fillcolor="#eb9c64"] ;
49 -> 187 ;
188 [label="X[11] <= -680.61\ngini = 0.133\nsamples = 2295\nvalue = [3410, 248, 13]", fillcolor="#e78b48"] ;
187 -> 188 ;
189 [label="X[4] <= 17.05\ngini = 0.14\nsamples = 47\nvalue = [6, 73, 0]", fillcolor="#49e78b"] ;
188 -> 189 ;
190 [label="X[7] <= 274.5\ngini = 0.457\nsamples = 11\nvalue = [6, 11, 0]", fillcolor="#a5f3c6"] ;
189 -> 190 ;
191 [label="X[4] <= 16.993\ngini = 0.26\nsamples = 9\nvalue = [2, 11, 0]", fillcolor="#5dea98"] ;
190 -> 191 ;
192 [label="X[10] <= 241.0\ngini = 0.153\nsamples = 8\nvalue = [1, 11, 0]", fillcolor="#4be78c"] ;
191 -> 192 ;
193 [label="X[0] <= 18.777\ngini = 0.444\nsamples = 2\nvalue = [1, 2, 0]", fillcolor="#9cf2c0"] ;
192 -> 193 ;
194 [label="gini = 0.0\nsamples = 1\nvalue = [0, 2, 0]", fillcolor="#39e581"] ;
193 -> 194 ;
195 [label="gini = 0.0\nsamples = 1\nvalue = [1, 0, 0]", fillcolor="#e58139"] ;
193 -> 195 ;
196 [label="gini = 0.0\nsamples = 6\nvalue = [0, 9, 0]", fillcolor="#39e581"] ;
192 -> 196 ;
197 [label="gini = 0.0\nsamples = 1\nvalue = [1, 0, 0]", fillcolor="#e58139"] ;
191 -> 197 ;
198 [label="gini = 0.0\nsamples = 2\nvalue = [4, 0, 0]", fillcolor="#e58139"] ;
190 -> 198 ;
199 [label="gini = 0.0\nsamples = 36\nvalue = [0, 62, 0]", fillcolor="#39e581"] ;
189 -> 199 ;
200 [label="X[11] <= 530.213\ngini = 0.1\nsamples = 2248\nvalue = [3404, 175, 13]", fillcolor="#e68844"] ;
188 -> 200 ;
201 [label="X[7] <= 760.5\ngini = 0.089\nsamples = 2230\nvalue = [3397, 152, 13]", fillcolor="#e68743"] ;
200 -> 201 ;
202 [label="X[5] <= 8112.0\ngini = 0.088\nsamples = 2226\nvalue = [3392, 150, 13]", fillcolor="#e68742"] ;
201 -> 202 ;
203 [label="X[0] <= 18.504\ngini = 0.086\nsamples = 2224\nvalue = [3392, 147, 13]", fillcolor="#e68742"] ;
202 -> 203 ;
204 [label="X[11] <= -343.452\ngini = 0.177\nsamples = 669\nvalue = [938, 93, 8]", fillcolor="#e88e4e"] ;
203 -> 204 ;
205 [label="X[11] <= -463.726\ngini = 0.452\nsamples = 35\nvalue = [19, 36, 0]", fillcolor="#a2f3c4"] ;
204 -> 205 ;
206 [label="gini = 0.0\nsamples = 8\nvalue = [0, 11, 0]", fillcolor="#39e581"] ;
205 -> 206 ;
207 [label="X[1] <= 16.839\ngini = 0.491\nsamples = 27\nvalue = [19, 25, 0]", fillcolor="#cff9e1"] ;
205 -> 207 ;
208 [label="X[13] <= 425.84\ngini = 0.142\nsamples = 8\nvalue = [12, 1, 0]", fillcolor="#e78c49"] ;
207 -> 208 ;
209 [label="gini = 0.0\nsamples = 7\nvalue = [12, 0, 0]", fillcolor="#e58139"] ;
208 -> 209 ;
210 [label="gini = 0.0\nsamples = 1\nvalue = [0, 1, 0]", fillcolor="#39e581"] ;
208 -> 210 ;
211 [label="X[4] <= 15.495\ngini = 0.35\nsamples = 19\nvalue = [7, 24, 0]", fillcolor="#73eda6"] ;
207 -> 211 ;
212 [label="X[3] <= 15.71\ngini = 0.375\nsamples = 2\nvalue = [3, 1, 0]", fillcolor="#eeab7b"] ;
211 -> 212 ;
213 [label="gini = 0.0\nsamples = 1\nvalue = [0, 1, 0]", fillcolor="#39e581"] ;
212 -> 213 ;
214 [label="gini = 0.0\nsamples = 1\nvalue = [3, 0, 0]", fillcolor="#e58139"] ;
212 -> 214 ;
215 [label="X[1] <= 17.25\ngini = 0.252\nsamples = 17\nvalue = [4, 23, 0]", fillcolor="#5bea97"] ;
211 -> 215 ;
216 [label="X[9] <= 53933.0\ngini = 0.444\nsamples = 9\nvalue = [4, 8, 0]", fillcolor="#9cf2c0"] ;
215 -> 216 ;
217 [label="X[12] <= 243.684\ngini = 0.32\nsamples = 7\nvalue = [2, 8, 0]", fillcolor="#6aeca0"] ;
216 -> 217 ;
218 [label="X[9] <= 52126.5\ngini = 0.198\nsamples = 6\nvalue = [1, 8, 0]", fillcolor="#52e891"] ;
217 -> 218 ;
219 [label="gini = 0.0\nsamples = 1\nvalue = [1, 0, 0]", fillcolor="#e58139"] ;
218 -> 219 ;
220 [label="gini = 0.0\nsamples = 5\nvalue = [0, 8, 0]", fillcolor="#39e581"] ;
218 -> 220 ;
221 [label="gini = 0.0\nsamples = 1\nvalue = [1, 0, 0]", fillcolor="#e58139"] ;
217 -> 221 ;
222 [label="gini = 0.0\nsamples = 2\nvalue = [2, 0, 0]", fillcolor="#e58139"] ;
216 -> 222 ;
223 [label="gini = 0.0\nsamples = 8\nvalue = [0, 15, 0]", fillcolor="#39e581"] ;
215 -> 223 ;
224 [label="X[12] <= -177.347\ngini = 0.124\nsamples = 634\nvalue = [919, 57, 8]", fillcolor="#e78a47"] ;
204 -> 224 ;
225 [label="X[3] <= 15.348\ngini = 0.354\nsamples = 47\nvalue = [57, 17, 0]", fillcolor="#eda774"] ;
224 -> 225 ;
226 [label="X[12] <= -183.662\ngini = 0.128\nsamples = 17\nvalue = [27, 2, 0]", fillcolor="#e78a48"] ;
225 -> 226 ;
227 [label="gini = 0.0\nsamples = 16\nvalue = [27, 0, 0]", fillcolor="#e58139"] ;
226 -> 227 ;
228 [label="gini = 0.0\nsamples = 1\nvalue = [0, 2, 0]", fillcolor="#39e581"] ;
226 -> 228 ;
229 [label="X[9] <= 54564.5\ngini = 0.444\nsamples = 30\nvalue = [30, 15, 0]", fillcolor="#f2c09c"] ;
225 -> 229 ;
230 [label="X[6] <= 1.5\ngini = 0.478\nsamples = 26\nvalue = [23, 15, 0]", fillcolor="#f6d3ba"] ;
229 -> 230 ;
231 [label="gini = 0.0\nsamples = 3\nvalue = [0, 6, 0]", fillcolor="#39e581"] ;
230 -> 231 ;
232 [label="X[11] <= -103.225\ngini = 0.404\nsamples = 23\nvalue = [23, 9, 0]", fillcolor="#efb286"] ;
230 -> 232 ;
233 [label="X[10] <= 290.0\ngini = 0.32\nsamples = 18\nvalue = [20, 5, 0]", fillcolor="#eca06a"] ;
232 -> 233 ;
234 [label="X[0] <= 18.018\ngini = 0.5\nsamples = 8\nvalue = [5, 5, 0]", fillcolor="#ffffff"] ;
233 -> 234 ;
235 [label="gini = 0.0\nsamples = 4\nvalue = [0, 5, 0]", fillcolor="#39e581"] ;
234 -> 235 ;
236 [label="gini = 0.0\nsamples = 4\nvalue = [5, 0, 0]", fillcolor="#e58139"] ;
234 -> 236 ;
237 [label="gini = 0.0\nsamples = 10\nvalue = [15, 0, 0]", fillcolor="#e58139"] ;
233 -> 237 ;
238 [label="X[0] <= 18.401\ngini = 0.49\nsamples = 5\nvalue = [3, 4, 0]", fillcolor="#cef8e0"] ;
232 -> 238 ;
239 [label="gini = 0.0\nsamples = 3\nvalue = [0, 4, 0]", fillcolor="#39e581"] ;
238 -> 239 ;
240 [label="gini = 0.0\nsamples = 2\nvalue = [3, 0, 0]", fillcolor="#e58139"] ;
238 -> 240 ;
241 [label="gini = 0.0\nsamples = 4\nvalue = [7, 0, 0]", fillcolor="#e58139"] ;
229 -> 241 ;
242 [label="X[8] <= 6816.0\ngini = 0.101\nsamples = 587\nvalue = [862, 40, 8]", fillcolor="#e68844"] ;
224 -> 242 ;
243 [label="X[2] <= 17.704\ngini = 0.084\nsamples = 577\nvalue = [856, 32, 7]", fillcolor="#e68742"] ;
242 -> 243 ;
244 [label="X[9] <= 51913.0\ngini = 0.08\nsamples = 576\nvalue = [856, 30, 7]", fillcolor="#e68641"] ;
243 -> 244 ;
245 [label="X[12] <= 135.502\ngini = 0.36\nsamples = 10\nvalue = [13, 4, 0]", fillcolor="#eda876"] ;
244 -> 245 ;
246 [label="gini = 0.0\nsamples = 9\nvalue = [13, 0, 0]", fillcolor="#e58139"] ;
245 -> 246 ;
247 [label="gini = 0.0\nsamples = 1\nvalue = [0, 4, 0]", fillcolor="#39e581"] ;
245 -> 247 ;
248 [label="X[1] <= 17.782\ngini = 0.073\nsamples = 566\nvalue = [843, 26, 7]", fillcolor="#e68641"] ;
244 -> 248 ;
249 [label="X[3] <= 15.333\ngini = 0.071\nsamples = 565\nvalue = [843, 25, 7]", fillcolor="#e68640"] ;
248 -> 249 ;
250 [label="X[0] <= 17.188\ngini = 0.042\nsamples = 269\nvalue = [408, 7, 2]", fillcolor="#e6843d"] ;
249 -> 250 ;
251 [label="X[9] <= 52256.5\ngini = 0.105\nsamples = 94\nvalue = [138, 6, 2]", fillcolor="#e68844"] ;
250 -> 251 ;
252 [label="X[9] <= 52240.0\ngini = 0.444\nsamples = 3\nvalue = [2, 0, 1]", fillcolor="#f2c09c"] ;
251 -> 252 ;
253 [label="gini = 0.0\nsamples = 2\nvalue = [2, 0, 0]", fillcolor="#e58139"] ;
252 -> 253 ;
254 [label="gini = 0.0\nsamples = 1\nvalue = [0, 0, 1]", fillcolor="#8139e5"] ;
252 -> 254 ;
255 [label="X[2] <= 14.727\ngini = 0.094\nsamples = 91\nvalue = [136, 6, 1]", fillcolor="#e68743"] ;
251 -> 255 ;
256 [label="X[7] <= 23.5\ngini = 0.022\nsamples = 60\nvalue = [91, 1, 0]", fillcolor="#e5823b"] ;
255 -> 256 ;
257 [label="X[7] <= 17.5\ngini = 0.444\nsamples = 3\nvalue = [2, 1, 0]", fillcolor="#f2c09c"] ;
256 -> 257 ;
258 [label="gini = 0.0\nsamples = 2\nvalue = [2, 0, 0]", fillcolor="#e58139"] ;
257 -> 258 ;
259 [label="gini = 0.0\nsamples = 1\nvalue = [0, 1, 0]", fillcolor="#39e581"] ;
257 -> 259 ;
260 [label="gini = 0.0\nsamples = 57\nvalue = [89, 0, 0]", fillcolor="#e58139"] ;
256 -> 260 ;
261 [label="X[3] <= 14.323\ngini = 0.211\nsamples = 31\nvalue = [45, 5, 1]", fillcolor="#e89153"] ;
255 -> 261 ;
262 [label="gini = 0.0\nsamples = 1\nvalue = [0, 2, 0]", fillcolor="#39e581"] ;
261 -> 262 ;
263 [label="X[0] <= 16.318\ngini = 0.152\nsamples = 30\nvalue = [45, 3, 1]", fillcolor="#e78c4a"] ;
261 -> 263 ;
264 [label="X[5] <= 3241.0\ngini = 0.375\nsamples = 2\nvalue = [3, 0, 1]", fillcolor="#eeab7b"] ;
263 -> 264 ;
265 [label="gini = 0.0\nsamples = 1\nvalue = [3, 0, 0]", fillcolor="#e58139"] ;
264 -> 265 ;
266 [label="gini = 0.0\nsamples = 1\nvalue = [0, 0, 1]", fillcolor="#8139e5"] ;
264 -> 266 ;
267 [label="X[12] <= -131.704\ngini = 0.124\nsamples = 28\nvalue = [42, 3, 0]", fillcolor="#e78a47"] ;
263 -> 267 ;
268 [label="gini = 0.0\nsamples = 1\nvalue = [0, 1, 0]", fillcolor="#39e581"] ;
267 -> 268 ;
269 [label="X[11] <= -193.015\ngini = 0.087\nsamples = 27\nvalue = [42, 2, 0]", fillcolor="#e68742"] ;
267 -> 269 ;
270 [label="X[10] <= 250.0\ngini = 0.375\nsamples = 2\nvalue = [3, 1, 0]", fillcolor="#eeab7b"] ;
269 -> 270 ;
271 [label="gini = 0.0\nsamples = 1\nvalue = [0, 1, 0]", fillcolor="#39e581"] ;
270 -> 271 ;
272 [label="gini = 0.0\nsamples = 1\nvalue = [3, 0, 0]", fillcolor="#e58139"] ;
270 -> 272 ;
273 [label="X[7] <= 279.5\ngini = 0.049\nsamples = 25\nvalue = [39, 1, 0]", fillcolor="#e6843e"] ;
269 -> 273 ;
274 [label="gini = 0.0\nsamples = 21\nvalue = [33, 0, 0]", fillcolor="#e58139"] ;
273 -> 274 ;
275 [label="X[1] <= 15.903\ngini = 0.245\nsamples = 4\nvalue = [6, 1, 0]", fillcolor="#e9965a"] ;
273 -> 275 ;
276 [label="gini = 0.0\nsamples = 3\nvalue = [6, 0, 0]", fillcolor="#e58139"] ;
275 -> 276 ;
277 [label="gini = 0.0\nsamples = 1\nvalue = [0, 1, 0]", fillcolor="#39e581"] ;
275 -> 277 ;
278 [label="X[6] <= 5.5\ngini = 0.007\nsamples = 175\nvalue = [270, 1, 0]", fillcolor="#e5813a"] ;
250 -> 278 ;
279 [label="gini = 0.0\nsamples = 161\nvalue = [250, 0, 0]", fillcolor="#e58139"] ;
278 -> 279 ;
280 [label="X[4] <= 14.899\ngini = 0.091\nsamples = 14\nvalue = [20, 1, 0]", fillcolor="#e68743"] ;
278 -> 280 ;
281 [label="gini = 0.0\nsamples = 11\nvalue = [16, 0, 0]", fillcolor="#e58139"] ;
280 -> 281 ;
282 [label="X[7] <= 55.5\ngini = 0.32\nsamples = 3\nvalue = [4, 1, 0]", fillcolor="#eca06a"] ;
280 -> 282 ;
283 [label="gini = 0.0\nsamples = 2\nvalue = [4, 0, 0]", fillcolor="#e58139"] ;
282 -> 283 ;
284 [label="gini = 0.0\nsamples = 1\nvalue = [0, 1, 0]", fillcolor="#39e581"] ;
282 -> 284 ;
285 [label="X[3] <= 15.339\ngini = 0.096\nsamples = 296\nvalue = [435, 18, 5]", fillcolor="#e68843"] ;
249 -> 285 ;
286 [label="gini = 0.0\nsamples = 1\nvalue = [0, 1, 0]", fillcolor="#39e581"] ;
285 -> 286 ;
287 [label="X[13] <= 2.829\ngini = 0.092\nsamples = 295\nvalue = [435, 17, 5]", fillcolor="#e68743"] ;
285 -> 287 ;
288 [label="gini = 0.0\nsamples = 2\nvalue = [0, 0, 5]", fillcolor="#8139e5"] ;
287 -> 288 ;
289 [label="X[0] <= 17.037\ngini = 0.072\nsamples = 293\nvalue = [435, 17, 0]", fillcolor="#e68641"] ;
287 -> 289 ;
290 [label="gini = 0.0\nsamples = 1\nvalue = [0, 2, 0]", fillcolor="#39e581"] ;
289 -> 290 ;
291 [label="X[13] <= 398.925\ngini = 0.064\nsamples = 292\nvalue = [435, 15, 0]", fillcolor="#e68540"] ;
289 -> 291 ;
292 [label="X[4] <= 15.008\ngini = 0.052\nsamples = 290\nvalue = [433, 12, 0]", fillcolor="#e6843e"] ;
291 -> 292 ;
293 [label="gini = 0.0\nsamples = 1\nvalue = [0, 1, 0]", fillcolor="#39e581"] ;
292 -> 293 ;
294 [label="X[7] <= 504.0\ngini = 0.048\nsamples = 289\nvalue = [433, 11, 0]", fillcolor="#e6843e"] ;
292 -> 294 ;
295 [label="X[9] <= 52244.5\ngini = 0.032\nsamples = 284\nvalue = [428, 7, 0]", fillcolor="#e5833c"] ;
294 -> 295 ;
296 [label="X[12] <= 176.364\ngini = 0.213\nsamples = 21\nvalue = [29, 4, 0]", fillcolor="#e99254"] ;
295 -> 296 ;
297 [label="X[0] <= 18.455\ngini = 0.069\nsamples = 18\nvalue = [27, 1, 0]", fillcolor="#e68640"] ;
296 -> 297 ;
298 [label="gini = 0.0\nsamples = 17\nvalue = [27, 0, 0]", fillcolor="#e58139"] ;
297 -> 298 ;
299 [label="gini = 0.0\nsamples = 1\nvalue = [0, 1, 0]", fillcolor="#39e581"] ;
297 -> 299 ;
300 [label="X[4] <= 15.301\ngini = 0.48\nsamples = 3\nvalue = [2, 3, 0]", fillcolor="#bdf6d5"] ;
296 -> 300 ;
301 [label="gini = 0.0\nsamples = 1\nvalue = [2, 0, 0]", fillcolor="#e58139"] ;
300 -> 301 ;
302 [label="gini = 0.0\nsamples = 2\nvalue = [0, 3, 0]", fillcolor="#39e581"] ;
300 -> 302 ;
303 [label="X[8] <= 1309.5\ngini = 0.015\nsamples = 263\nvalue = [399, 3, 0]", fillcolor="#e5823a"] ;
295 -> 303 ;
304 [label="gini = 0.0\nsamples = 88\nvalue = [132, 0, 0]", fillcolor="#e58139"] ;
303 -> 304 ;
305 [label="X[13] <= 172.198\ngini = 0.022\nsamples = 175\nvalue = [267, 3, 0]", fillcolor="#e5823b"] ;
303 -> 305 ;
306 [label="X[12] <= -163.25\ngini = 0.008\nsamples = 154\nvalue = [240, 1, 0]", fillcolor="#e5823a"] ;
305 -> 306 ;
307 [label="X[13] <= 61.585\ngini = 0.153\nsamples = 8\nvalue = [11, 1, 0]", fillcolor="#e78c4b"] ;
306 -> 307 ;
308 [label="X[10] <= 325.5\ngini = 0.5\nsamples = 2\nvalue = [1, 1, 0]", fillcolor="#ffffff"] ;
307 -> 308 ;
309 [label="gini = 0.0\nsamples = 1\nvalue = [0, 1, 0]", fillcolor="#39e581"] ;
308 -> 309 ;
310 [label="gini = 0.0\nsamples = 1\nvalue = [1, 0, 0]", fillcolor="#e58139"] ;
308 -> 310 ;
311 [label="gini = 0.0\nsamples = 6\nvalue = [10, 0, 0]", fillcolor="#e58139"] ;
307 -> 311 ;
312 [label="gini = 0.0\nsamples = 146\nvalue = [229, 0, 0]", fillcolor="#e58139"] ;
306 -> 312 ;
313 [label="X[13] <= 173.302\ngini = 0.128\nsamples = 21\nvalue = [27, 2, 0]", fillcolor="#e78a48"] ;
305 -> 313 ;
314 [label="gini = 0.0\nsamples = 1\nvalue = [0, 1, 0]", fillcolor="#39e581"] ;
313 -> 314 ;
315 [label="X[0] <= 17.696\ngini = 0.069\nsamples = 20\nvalue = [27, 1, 0]", fillcolor="#e68640"] ;
313 -> 315 ;
316 [label="X[5] <= 3705.5\ngini = 0.444\nsamples = 2\nvalue = [2, 1, 0]", fillcolor="#f2c09c"] ;
315 -> 316 ;
317 [label="gini = 0.0\nsamples = 1\nvalue = [0, 1, 0]", fillcolor="#39e581"] ;
316 -> 317 ;
318 [label="gini = 0.0\nsamples = 1\nvalue = [2, 0, 0]", fillcolor="#e58139"] ;
316 -> 318 ;
319 [label="gini = 0.0\nsamples = 18\nvalue = [25, 0, 0]", fillcolor="#e58139"] ;
315 -> 319 ;
320 [label="X[7] <= 584.5\ngini = 0.494\nsamples = 5\nvalue = [5, 4, 0]", fillcolor="#fae6d7"] ;
294 -> 320 ;
321 [label="X[2] <= 16.524\ngini = 0.32\nsamples = 3\nvalue = [1, 4, 0]", fillcolor="#6aeca0"] ;
320 -> 321 ;
322 [label="gini = 0.0\nsamples = 2\nvalue = [0, 4, 0]", fillcolor="#39e581"] ;
321 -> 322 ;
323 [label="gini = 0.0\nsamples = 1\nvalue = [1, 0, 0]", fillcolor="#e58139"] ;
321 -> 323 ;
324 [label="gini = 0.0\nsamples = 2\nvalue = [4, 0, 0]", fillcolor="#e58139"] ;
320 -> 324 ;
325 [label="X[2] <= 16.455\ngini = 0.48\nsamples = 2\nvalue = [2, 3, 0]", fillcolor="#bdf6d5"] ;
291 -> 325 ;
326 [label="gini = 0.0\nsamples = 1\nvalue = [2, 0, 0]", fillcolor="#e58139"] ;
325 -> 326 ;
327 [label="gini = 0.0\nsamples = 1\nvalue = [0, 3, 0]", fillcolor="#39e581"] ;
325 -> 327 ;
328 [label="gini = 0.0\nsamples = 1\nvalue = [0, 1, 0]", fillcolor="#39e581"] ;
248 -> 328 ;
329 [label="gini = 0.0\nsamples = 1\nvalue = [0, 2, 0]", fillcolor="#39e581"] ;
243 -> 329 ;
330 [label="X[0] <= 18.372\ngini = 0.551\nsamples = 10\nvalue = [6, 8, 1]", fillcolor="#d3f9e3"] ;
242 -> 330 ;
331 [label="X[1] <= 16.339\ngini = 0.32\nsamples = 7\nvalue = [2, 8, 0]", fillcolor="#6aeca0"] ;
330 -> 331 ;
332 [label="gini = 0.0\nsamples = 2\nvalue = [2, 0, 0]", fillcolor="#e58139"] ;
331 -> 332 ;
333 [label="gini = 0.0\nsamples = 5\nvalue = [0, 8, 0]", fillcolor="#39e581"] ;
331 -> 333 ;
334 [label="X[12] <= 3.092\ngini = 0.32\nsamples = 3\nvalue = [4, 0, 1]", fillcolor="#eca06a"] ;
330 -> 334 ;
335 [label="gini = 0.0\nsamples = 1\nvalue = [0, 0, 1]", fillcolor="#8139e5"] ;
334 -> 335 ;
336 [label="gini = 0.0\nsamples = 2\nvalue = [4, 0, 0]", fillcolor="#e58139"] ;
334 -> 336 ;
337 [label="X[1] <= 18.257\ngini = 0.046\nsamples = 1555\nvalue = [2454, 54, 5]", fillcolor="#e6843e"] ;
203 -> 337 ;
338 [label="X[9] <= 57748.5\ngini = 0.037\nsamples = 1495\nvalue = [2347, 40, 5]", fillcolor="#e5833d"] ;
337 -> 338 ;
339 [label="X[8] <= 2208.5\ngini = 0.036\nsamples = 1493\nvalue = [2346, 40, 4]", fillcolor="#e5833d"] ;
338 -> 339 ;
340 [label="X[2] <= 17.197\ngini = 0.026\nsamples = 1168\nvalue = [1854, 21, 4]", fillcolor="#e5833c"] ;
339 -> 340 ;
341 [label="X[13] <= 369.191\ngini = 0.035\nsamples = 761\nvalue = [1199, 19, 3]", fillcolor="#e5833d"] ;
340 -> 341 ;
342 [label="X[11] <= -11.328\ngini = 0.016\nsamples = 689\nvalue = [1089, 6, 3]", fillcolor="#e5823b"] ;
341 -> 342 ;
343 [label="X[8] <= 479.0\ngini = 0.011\nsamples = 657\nvalue = [1039, 6, 0]", fillcolor="#e5823a"] ;
342 -> 343 ;
344 [label="X[9] <= 51936.5\ngini = 0.091\nsamples = 14\nvalue = [20, 1, 0]", fillcolor="#e68743"] ;
343 -> 344 ;
345 [label="gini = 0.0\nsamples = 11\nvalue = [18, 0, 0]", fillcolor="#e58139"] ;
344 -> 345 ;
346 [label="X[13] <= 18.951\ngini = 0.444\nsamples = 3\nvalue = [2, 1, 0]", fillcolor="#f2c09c"] ;
344 -> 346 ;
347 [label="gini = 0.0\nsamples = 2\nvalue = [2, 0, 0]", fillcolor="#e58139"] ;
346 -> 347 ;
348 [label="gini = 0.0\nsamples = 1\nvalue = [0, 1, 0]", fillcolor="#39e581"] ;
346 -> 348 ;
349 [label="X[12] <= -234.847\ngini = 0.01\nsamples = 643\nvalue = [1019, 5, 0]", fillcolor="#e5823a"] ;
343 -> 349 ;
350 [label="X[6] <= 2.5\ngini = 0.046\nsamples = 81\nvalue = [124, 3, 0]", fillcolor="#e6843e"] ;
349 -> 350 ;
351 [label="X[12] <= -236.599\ngini = 0.136\nsamples = 27\nvalue = [38, 3, 0]", fillcolor="#e78b49"] ;
350 -> 351 ;
352 [label="X[2] <= 17.192\ngini = 0.05\nsamples = 26\nvalue = [38, 1, 0]", fillcolor="#e6843e"] ;
351 -> 352 ;
353 [label="gini = 0.0\nsamples = 25\nvalue = [38, 0, 0]", fillcolor="#e58139"] ;
352 -> 353 ;
354 [label="gini = 0.0\nsamples = 1\nvalue = [0, 1, 0]", fillcolor="#39e581"] ;
352 -> 354 ;
355 [label="gini = 0.0\nsamples = 1\nvalue = [0, 2, 0]", fillcolor="#39e581"] ;
351 -> 355 ;
356 [label="gini = 0.0\nsamples = 54\nvalue = [86, 0, 0]", fillcolor="#e58139"] ;
350 -> 356 ;
357 [label="X[8] <= 570.5\ngini = 0.004\nsamples = 562\nvalue = [895, 2, 0]", fillcolor="#e58139"] ;
349 -> 357 ;
358 [label="X[0] <= 19.53\ngini = 0.038\nsamples = 36\nvalue = [50, 1, 0]", fillcolor="#e6843d"] ;
357 -> 358 ;
359 [label="gini = 0.0\nsamples = 34\nvalue = [49, 0, 0]", fillcolor="#e58139"] ;
358 -> 359 ;
360 [label="X[11] <= -497.878\ngini = 0.5\nsamples = 2\nvalue = [1, 1, 0]", fillcolor="#ffffff"] ;
358 -> 360 ;
361 [label="gini = 0.0\nsamples = 1\nvalue = [1, 0, 0]", fillcolor="#e58139"] ;
360 -> 361 ;
362 [label="gini = 0.0\nsamples = 1\nvalue = [0, 1, 0]", fillcolor="#39e581"] ;
360 -> 362 ;
363 [label="X[9] <= 53444.0\ngini = 0.002\nsamples = 526\nvalue = [845, 1, 0]", fillcolor="#e58139"] ;
357 -> 363 ;
364 [label="gini = 0.0\nsamples = 410\nvalue = [648, 0, 0]", fillcolor="#e58139"] ;
363 -> 364 ;
365 [label="X[9] <= 53453.0\ngini = 0.01\nsamples = 116\nvalue = [197, 1, 0]", fillcolor="#e5823a"] ;
363 -> 365 ;
366 [label="X[12] <= 97.213\ngini = 0.32\nsamples = 5\nvalue = [4, 1, 0]", fillcolor="#eca06a"] ;
365 -> 366 ;
367 [label="gini = 0.0\nsamples = 4\nvalue = [4, 0, 0]", fillcolor="#e58139"] ;
366 -> 367 ;
368 [label="gini = 0.0\nsamples = 1\nvalue = [0, 1, 0]", fillcolor="#39e581"] ;
366 -> 368 ;
369 [label="gini = 0.0\nsamples = 111\nvalue = [193, 0, 0]", fillcolor="#e58139"] ;
365 -> 369 ;
370 [label="X[2] <= 17.062\ngini = 0.107\nsamples = 32\nvalue = [50, 0, 3]", fillcolor="#e78945"] ;
342 -> 370 ;
371 [label="gini = 0.0\nsamples = 27\nvalue = [46, 0, 0]", fillcolor="#e58139"] ;
370 -> 371 ;
372 [label="X[12] <= -36.679\ngini = 0.49\nsamples = 5\nvalue = [4, 0, 3]", fillcolor="#f8e0ce"] ;
370 -> 372 ;
373 [label="gini = 0.0\nsamples = 2\nvalue = [3, 0, 0]", fillcolor="#e58139"] ;
372 -> 373 ;
374 [label="X[5] <= 4361.0\ngini = 0.375\nsamples = 3\nvalue = [1, 0, 3]", fillcolor="#ab7bee"] ;
372 -> 374 ;
375 [label="gini = 0.0\nsamples = 2\nvalue = [0, 0, 3]", fillcolor="#8139e5"] ;
374 -> 375 ;
376 [label="gini = 0.0\nsamples = 1\nvalue = [1, 0, 0]", fillcolor="#e58139"] ;
374 -> 376 ;
377 [label="X[2] <= 16.736\ngini = 0.189\nsamples = 72\nvalue = [110, 13, 0]", fillcolor="#e89050"] ;
341 -> 377 ;
378 [label="gini = 0.0\nsamples = 37\nvalue = [55, 0, 0]", fillcolor="#e58139"] ;
377 -> 378 ;
379 [label="X[13] <= 379.861\ngini = 0.309\nsamples = 35\nvalue = [55, 13, 0]", fillcolor="#eb9f68"] ;
377 -> 379 ;
380 [label="gini = 0.0\nsamples = 3\nvalue = [0, 4, 0]", fillcolor="#39e581"] ;
379 -> 380 ;
381 [label="X[10] <= 187.0\ngini = 0.242\nsamples = 32\nvalue = [55, 9, 0]", fillcolor="#e99659"] ;
379 -> 381 ;
382 [label="gini = 0.0\nsamples = 11\nvalue = [21, 0, 0]", fillcolor="#e58139"] ;
381 -> 382 ;
383 [label="X[12] <= -311.85\ngini = 0.331\nsamples = 21\nvalue = [34, 9, 0]", fillcolor="#eca26d"] ;
381 -> 383 ;
384 [label="gini = 0.0\nsamples = 2\nvalue = [0, 3, 0]", fillcolor="#39e581"] ;
383 -> 384 ;
385 [label="X[4] <= 15.982\ngini = 0.255\nsamples = 19\nvalue = [34, 6, 0]", fillcolor="#ea975c"] ;
383 -> 385 ;
386 [label="gini = 0.0\nsamples = 1\nvalue = [0, 3, 0]", fillcolor="#39e581"] ;
385 -> 386 ;
387 [label="X[3] <= 16.779\ngini = 0.149\nsamples = 18\nvalue = [34, 3, 0]", fillcolor="#e78c4a"] ;
385 -> 387 ;
388 [label="X[0] <= 18.65\ngini = 0.105\nsamples = 17\nvalue = [34, 2, 0]", fillcolor="#e78845"] ;
387 -> 388 ;
389 [label="gini = 0.0\nsamples = 1\nvalue = [0, 2, 0]", fillcolor="#39e581"] ;
388 -> 389 ;
390 [label="gini = 0.0\nsamples = 16\nvalue = [34, 0, 0]", fillcolor="#e58139"] ;
388 -> 390 ;
391 [label="gini = 0.0\nsamples = 1\nvalue = [0, 1, 0]", fillcolor="#39e581"] ;
387 -> 391 ;
392 [label="X[1] <= 18.149\ngini = 0.009\nsamples = 407\nvalue = [655, 2, 1]", fillcolor="#e5823a"] ;
340 -> 392 ;
393 [label="gini = 0.0\nsamples = 330\nvalue = [538, 0, 0]", fillcolor="#e58139"] ;
392 -> 393 ;
394 [label="X[1] <= 18.15\ngini = 0.049\nsamples = 77\nvalue = [117, 2, 1]", fillcolor="#e6843e"] ;
392 -> 394 ;
395 [label="gini = 0.0\nsamples = 1\nvalue = [0, 1, 0]", fillcolor="#39e581"] ;
394 -> 395 ;
396 [label="X[11] <= -20.135\ngini = 0.033\nsamples = 76\nvalue = [117, 1, 1]", fillcolor="#e5833c"] ;
394 -> 396 ;
397 [label="X[7] <= 348.0\ngini = 0.017\nsamples = 72\nvalue = [114, 1, 0]", fillcolor="#e5823b"] ;
396 -> 397 ;
398 [label="gini = 0.0\nsamples = 67\nvalue = [107, 0, 0]", fillcolor="#e58139"] ;
397 -> 398 ;
399 [label="X[7] <= 366.0\ngini = 0.219\nsamples = 5\nvalue = [7, 1, 0]", fillcolor="#e99355"] ;
397 -> 399 ;
400 [label="gini = 0.0\nsamples = 1\nvalue = [0, 1, 0]", fillcolor="#39e581"] ;
399 -> 400 ;
401 [label="gini = 0.0\nsamples = 4\nvalue = [7, 0, 0]", fillcolor="#e58139"] ;
399 -> 401 ;
402 [label="X[8] <= 1430.0\ngini = 0.375\nsamples = 4\nvalue = [3, 0, 1]", fillcolor="#eeab7b"] ;
396 -> 402 ;
403 [label="gini = 0.0\nsamples = 3\nvalue = [3, 0, 0]", fillcolor="#e58139"] ;
402 -> 403 ;
404 [label="gini = 0.0\nsamples = 1\nvalue = [0, 0, 1]", fillcolor="#8139e5"] ;
402 -> 404 ;
405 [label="X[12] <= 289.973\ngini = 0.072\nsamples = 325\nvalue = [492, 19, 0]", fillcolor="#e68641"] ;
339 -> 405 ;
406 [label="X[1] <= 18.179\ngini = 0.048\nsamples = 306\nvalue = [472, 12, 0]", fillcolor="#e6843e"] ;
405 -> 406 ;
407 [label="X[2] <= 16.385\ngini = 0.038\nsamples = 292\nvalue = [454, 9, 0]", fillcolor="#e6833d"] ;
406 -> 407 ;
408 [label="gini = 0.0\nsamples = 84\nvalue = [126, 0, 0]", fillcolor="#e58139"] ;
407 -> 408 ;
409 [label="X[2] <= 16.388\ngini = 0.052\nsamples = 208\nvalue = [328, 9, 0]", fillcolor="#e6843e"] ;
407 -> 409 ;
410 [label="gini = 0.0\nsamples = 1\nvalue = [0, 3, 0]", fillcolor="#39e581"] ;
409 -> 410 ;
411 [label="X[4] <= 16.561\ngini = 0.035\nsamples = 207\nvalue = [328, 6, 0]", fillcolor="#e5833d"] ;
409 -> 411 ;
412 [label="X[4] <= 16.541\ngini = 0.059\nsamples = 124\nvalue = [192, 6, 0]", fillcolor="#e6853f"] ;
411 -> 412 ;
413 [label="X[12] <= -212.114\ngini = 0.049\nsamples = 123\nvalue = [192, 5, 0]", fillcolor="#e6843e"] ;
412 -> 413 ;
414 [label="X[5] <= 4660.0\ngini = 0.157\nsamples = 24\nvalue = [32, 3, 0]", fillcolor="#e78d4c"] ;
413 -> 414 ;
415 [label="X[10] <= 144.5\ngini = 0.444\nsamples = 7\nvalue = [6, 3, 0]", fillcolor="#f2c09c"] ;
414 -> 415 ;
416 [label="gini = 0.0\nsamples = 1\nvalue = [0, 3, 0]", fillcolor="#39e581"] ;
415 -> 416 ;
417 [label="gini = 0.0\nsamples = 6\nvalue = [6, 0, 0]", fillcolor="#e58139"] ;
415 -> 417 ;
418 [label="gini = 0.0\nsamples = 17\nvalue = [26, 0, 0]", fillcolor="#e58139"] ;
414 -> 418 ;
419 [label="X[6] <= 3.5\ngini = 0.024\nsamples = 99\nvalue = [160, 2, 0]", fillcolor="#e5833b"] ;
413 -> 419 ;
420 [label="gini = 0.0\nsamples = 74\nvalue = [127, 0, 0]", fillcolor="#e58139"] ;
419 -> 420 ;
421 [label="X[12] <= 161.387\ngini = 0.108\nsamples = 25\nvalue = [33, 2, 0]", fillcolor="#e78945"] ;
419 -> 421 ;
422 [label="gini = 0.0\nsamples = 22\nvalue = [31, 0, 0]", fillcolor="#e58139"] ;
421 -> 422 ;
423 [label="X[0] <= 19.235\ngini = 0.5\nsamples = 3\nvalue = [2, 2, 0]", fillcolor="#ffffff"] ;
421 -> 423 ;
424 [label="gini = 0.0\nsamples = 2\nvalue = [2, 0, 0]", fillcolor="#e58139"] ;
423 -> 424 ;
425 [label="gini = 0.0\nsamples = 1\nvalue = [0, 2, 0]", fillcolor="#39e581"] ;
423 -> 425 ;
426 [label="gini = 0.0\nsamples = 1\nvalue = [0, 1, 0]", fillcolor="#39e581"] ;
412 -> 426 ;
427 [label="gini = 0.0\nsamples = 83\nvalue = [136, 0, 0]", fillcolor="#e58139"] ;
411 -> 427 ;
428 [label="X[8] <= 2215.0\ngini = 0.245\nsamples = 14\nvalue = [18, 3, 0]", fillcolor="#e9965a"] ;
406 -> 428 ;
429 [label="gini = 0.0\nsamples = 1\nvalue = [0, 2, 0]", fillcolor="#39e581"] ;
428 -> 429 ;
430 [label="X[12] <= -381.848\ngini = 0.1\nsamples = 13\nvalue = [18, 1, 0]", fillcolor="#e68844"] ;
428 -> 430 ;
431 [label="gini = 0.0\nsamples = 1\nvalue = [0, 1, 0]", fillcolor="#39e581"] ;
430 -> 431 ;
432 [label="gini = 0.0\nsamples = 12\nvalue = [18, 0, 0]", fillcolor="#e58139"] ;
430 -> 432 ;
433 [label="X[4] <= 16.531\ngini = 0.384\nsamples = 19\nvalue = [20, 7, 0]", fillcolor="#eead7e"] ;
405 -> 433 ;
434 [label="X[5] <= 5953.5\ngini = 0.475\nsamples = 13\nvalue = [11, 7, 0]", fillcolor="#f6d1b7"] ;
433 -> 434 ;
435 [label="X[11] <= -219.334\ngini = 0.337\nsamples = 10\nvalue = [11, 3, 0]", fillcolor="#eca36f"] ;
434 -> 435 ;
436 [label="gini = 0.0\nsamples = 8\nvalue = [11, 0, 0]", fillcolor="#e58139"] ;
435 -> 436 ;
437 [label="gini = 0.0\nsamples = 2\nvalue = [0, 3, 0]", fillcolor="#39e581"] ;
435 -> 437 ;
438 [label="gini = 0.0\nsamples = 3\nvalue = [0, 4, 0]", fillcolor="#39e581"] ;
434 -> 438 ;
439 [label="gini = 0.0\nsamples = 6\nvalue = [9, 0, 0]", fillcolor="#e58139"] ;
433 -> 439 ;
440 [label="X[6] <= 3.5\ngini = 0.5\nsamples = 2\nvalue = [1, 0, 1]", fillcolor="#ffffff"] ;
338 -> 440 ;
441 [label="gini = 0.0\nsamples = 1\nvalue = [1, 0, 0]", fillcolor="#e58139"] ;
440 -> 441 ;
442 [label="gini = 0.0\nsamples = 1\nvalue = [0, 0, 1]", fillcolor="#8139e5"] ;
440 -> 442 ;
443 [label="X[0] <= 19.099\ngini = 0.205\nsamples = 60\nvalue = [107, 14, 0]", fillcolor="#e89153"] ;
337 -> 443 ;
444 [label="gini = 0.0\nsamples = 3\nvalue = [0, 6, 0]", fillcolor="#39e581"] ;
443 -> 444 ;
445 [label="X[3] <= 16.918\ngini = 0.129\nsamples = 57\nvalue = [107, 8, 0]", fillcolor="#e78a48"] ;
443 -> 445 ;
446 [label="gini = 0.0\nsamples = 1\nvalue = [0, 5, 0]", fillcolor="#39e581"] ;
445 -> 446 ;
447 [label="X[7] <= 42.0\ngini = 0.053\nsamples = 56\nvalue = [107, 3, 0]", fillcolor="#e6853f"] ;
445 -> 447 ;
448 [label="X[11] <= -345.498\ngini = 0.444\nsamples = 2\nvalue = [1, 2, 0]", fillcolor="#9cf2c0"] ;
447 -> 448 ;
449 [label="gini = 0.0\nsamples = 1\nvalue = [0, 2, 0]", fillcolor="#39e581"] ;
448 -> 449 ;
450 [label="gini = 0.0\nsamples = 1\nvalue = [1, 0, 0]", fillcolor="#e58139"] ;
448 -> 450 ;
451 [label="X[3] <= 17.058\ngini = 0.019\nsamples = 54\nvalue = [106, 1, 0]", fillcolor="#e5823b"] ;
447 -> 451 ;
452 [label="X[9] <= 52743.5\ngini = 0.444\nsamples = 2\nvalue = [2, 1, 0]", fillcolor="#f2c09c"] ;
451 -> 452 ;
453 [label="gini = 0.0\nsamples = 1\nvalue = [0, 1, 0]", fillcolor="#39e581"] ;
452 -> 453 ;
454 [label="gini = 0.0\nsamples = 1\nvalue = [2, 0, 0]", fillcolor="#e58139"] ;
452 -> 454 ;
455 [label="gini = 0.0\nsamples = 52\nvalue = [104, 0, 0]", fillcolor="#e58139"] ;
451 -> 455 ;
456 [label="gini = 0.0\nsamples = 2\nvalue = [0, 3, 0]", fillcolor="#39e581"] ;
202 -> 456 ;
457 [label="X[12] <= -336.456\ngini = 0.408\nsamples = 4\nvalue = [5, 2, 0]", fillcolor="#efb388"] ;
201 -> 457 ;
458 [label="gini = 0.0\nsamples = 1\nvalue = [0, 2, 0]", fillcolor="#39e581"] ;
457 -> 458 ;
459 [label="gini = 0.0\nsamples = 3\nvalue = [5, 0, 0]", fillcolor="#e58139"] ;
457 -> 459 ;
460 [label="X[13] <= 14.554\ngini = 0.358\nsamples = 18\nvalue = [7, 23, 0]", fillcolor="#75eda7"] ;
200 -> 460 ;
461 [label="gini = 0.0\nsamples = 1\nvalue = [3, 0, 0]", fillcolor="#e58139"] ;
460 -> 461 ;
462 [label="X[9] <= 57865.5\ngini = 0.252\nsamples = 17\nvalue = [4, 23, 0]", fillcolor="#5bea97"] ;
460 -> 462 ;
463 [label="X[0] <= 18.703\ngini = 0.391\nsamples = 12\nvalue = [4, 11, 0]", fillcolor="#81eeaf"] ;
462 -> 463 ;
464 [label="gini = 0.0\nsamples = 5\nvalue = [0, 7, 0]", fillcolor="#39e581"] ;
463 -> 464 ;
465 [label="X[8] <= 5582.5\ngini = 0.5\nsamples = 7\nvalue = [4, 4, 0]", fillcolor="#ffffff"] ;
463 -> 465 ;
466 [label="gini = 0.0\nsamples = 3\nvalue = [0, 4, 0]", fillcolor="#39e581"] ;
465 -> 466 ;
467 [label="gini = 0.0\nsamples = 4\nvalue = [4, 0, 0]", fillcolor="#e58139"] ;
465 -> 467 ;
468 [label="gini = 0.0\nsamples = 5\nvalue = [0, 12, 0]", fillcolor="#39e581"] ;
462 -> 468 ;
469 [label="X[3] <= 17.926\ngini = 0.229\nsamples = 347\nvalue = [69, 494, 5]", fillcolor="#56e994"] ;
187 -> 469 ;
470 [label="X[1] <= 18.533\ngini = 0.491\nsamples = 78\nvalue = [51, 67, 0]", fillcolor="#d0f9e1"] ;
469 -> 470 ;
471 [label="X[3] <= 17.187\ngini = 0.295\nsamples = 37\nvalue = [41, 9, 0]", fillcolor="#eb9d64"] ;
470 -> 471 ;
472 [label="gini = 0.0\nsamples = 3\nvalue = [0, 3, 0]", fillcolor="#39e581"] ;
471 -> 472 ;
473 [label="X[12] <= 318.907\ngini = 0.223\nsamples = 34\nvalue = [41, 6, 0]", fillcolor="#e99356"] ;
471 -> 473 ;
474 [label="X[13] <= 451.848\ngini = 0.194\nsamples = 33\nvalue = [41, 5, 0]", fillcolor="#e89051"] ;
473 -> 474 ;
475 [label="X[1] <= 18.487\ngini = 0.051\nsamples = 25\nvalue = [37, 1, 0]", fillcolor="#e6843e"] ;
474 -> 475 ;
476 [label="gini = 0.0\nsamples = 22\nvalue = [34, 0, 0]", fillcolor="#e58139"] ;
475 -> 476 ;
477 [label="X[3] <= 17.467\ngini = 0.375\nsamples = 3\nvalue = [3, 1, 0]", fillcolor="#eeab7b"] ;
475 -> 477 ;
478 [label="gini = 0.0\nsamples = 1\nvalue = [0, 1, 0]", fillcolor="#39e581"] ;
477 -> 478 ;
479 [label="gini = 0.0\nsamples = 2\nvalue = [3, 0, 0]", fillcolor="#e58139"] ;
477 -> 479 ;
480 [label="X[10] <= 80.0\ngini = 0.5\nsamples = 8\nvalue = [4, 4, 0]", fillcolor="#ffffff"] ;
474 -> 480 ;
481 [label="gini = 0.0\nsamples = 2\nvalue = [0, 2, 0]", fillcolor="#39e581"] ;
480 -> 481 ;
482 [label="X[5] <= 3776.0\ngini = 0.444\nsamples = 6\nvalue = [4, 2, 0]", fillcolor="#f2c09c"] ;
480 -> 482 ;
483 [label="gini = 0.0\nsamples = 3\nvalue = [3, 0, 0]", fillcolor="#e58139"] ;
482 -> 483 ;
484 [label="X[6] <= 1.5\ngini = 0.444\nsamples = 3\nvalue = [1, 2, 0]", fillcolor="#9cf2c0"] ;
482 -> 484 ;
485 [label="gini = 0.0\nsamples = 1\nvalue = [1, 0, 0]", fillcolor="#e58139"] ;
484 -> 485 ;
486 [label="gini = 0.0\nsamples = 2\nvalue = [0, 2, 0]", fillcolor="#39e581"] ;
484 -> 486 ;
487 [label="gini = 0.0\nsamples = 1\nvalue = [0, 1, 0]", fillcolor="#39e581"] ;
473 -> 487 ;
488 [label="X[2] <= 18.22\ngini = 0.251\nsamples = 41\nvalue = [10, 58, 0]", fillcolor="#5be997"] ;
470 -> 488 ;
489 [label="X[0] <= 19.417\ngini = 0.131\nsamples = 34\nvalue = [4, 53, 0]", fillcolor="#48e78b"] ;
488 -> 489 ;
490 [label="gini = 0.0\nsamples = 20\nvalue = [0, 33, 0]", fillcolor="#39e581"] ;
489 -> 490 ;
491 [label="X[6] <= 2.5\ngini = 0.278\nsamples = 14\nvalue = [4, 20, 0]", fillcolor="#61ea9a"] ;
489 -> 491 ;
492 [label="X[7] <= 119.0\ngini = 0.444\nsamples = 5\nvalue = [4, 2, 0]", fillcolor="#f2c09c"] ;
491 -> 492 ;
493 [label="gini = 0.0\nsamples = 2\nvalue = [0, 2, 0]", fillcolor="#39e581"] ;
492 -> 493 ;
494 [label="gini = 0.0\nsamples = 3\nvalue = [4, 0, 0]", fillcolor="#e58139"] ;
492 -> 494 ;
495 [label="gini = 0.0\nsamples = 9\nvalue = [0, 18, 0]", fillcolor="#39e581"] ;
491 -> 495 ;
496 [label="X[11] <= -403.208\ngini = 0.496\nsamples = 7\nvalue = [6, 5, 0]", fillcolor="#fbeade"] ;
488 -> 496 ;
497 [label="gini = 0.0\nsamples = 3\nvalue = [0, 4, 0]", fillcolor="#39e581"] ;
496 -> 497 ;
498 [label="X[10] <= 605.0\ngini = 0.245\nsamples = 4\nvalue = [6, 1, 0]", fillcolor="#e9965a"] ;
496 -> 498 ;
499 [label="gini = 0.0\nsamples = 3\nvalue = [6, 0, 0]", fillcolor="#e58139"] ;
498 -> 499 ;
500 [label="gini = 0.0\nsamples = 1\nvalue = [0, 1, 0]", fillcolor="#39e581"] ;
498 -> 500 ;
501 [label="X[0] <= 19.588\ngini = 0.098\nsamples = 269\nvalue = [18, 427, 5]", fillcolor="#44e688"] ;
469 -> 501 ;
502 [label="X[13] <= 8.958\ngini = 0.086\nsamples = 257\nvalue = [14, 407, 5]", fillcolor="#42e687"] ;
501 -> 502 ;
503 [label="X[11] <= 1785.027\ngini = 0.278\nsamples = 3\nvalue = [0, 1, 5]", fillcolor="#9a61ea"] ;
502 -> 503 ;
504 [label="gini = 0.0\nsamples = 2\nvalue = [0, 0, 5]", fillcolor="#8139e5"] ;
503 -> 504 ;
505 [label="gini = 0.0\nsamples = 1\nvalue = [0, 1, 0]", fillcolor="#39e581"] ;
503 -> 505 ;
506 [label="X[1] <= 19.786\ngini = 0.064\nsamples = 254\nvalue = [14, 406, 0]", fillcolor="#40e685"] ;
502 -> 506 ;
507 [label="X[13] <= 684.937\ngini = 0.051\nsamples = 253\nvalue = [11, 406, 0]", fillcolor="#3ee684"] ;
506 -> 507 ;
508 [label="X[11] <= -605.474\ngini = 0.142\nsamples = 87\nvalue = [11, 132, 0]", fillcolor="#49e78c"] ;
507 -> 508 ;
509 [label="gini = 0.0\nsamples = 40\nvalue = [0, 74, 0]", fillcolor="#39e581"] ;
508 -> 509 ;
510 [label="X[11] <= -240.791\ngini = 0.268\nsamples = 47\nvalue = [11, 58, 0]", fillcolor="#5fea99"] ;
508 -> 510 ;
511 [label="X[10] <= 142.5\ngini = 0.278\nsamples = 8\nvalue = [10, 2, 0]", fillcolor="#ea9a61"] ;
510 -> 511 ;
512 [label="gini = 0.0\nsamples = 1\nvalue = [0, 2, 0]", fillcolor="#39e581"] ;
511 -> 512 ;
513 [label="gini = 0.0\nsamples = 7\nvalue = [10, 0, 0]", fillcolor="#e58139"] ;
511 -> 513 ;
514 [label="X[13] <= 650.781\ngini = 0.034\nsamples = 39\nvalue = [1, 56, 0]", fillcolor="#3de583"] ;
510 -> 514 ;
515 [label="gini = 0.0\nsamples = 38\nvalue = [0, 56, 0]", fillcolor="#39e581"] ;
514 -> 515 ;
516 [label="gini = 0.0\nsamples = 1\nvalue = [1, 0, 0]", fillcolor="#e58139"] ;
514 -> 516 ;
517 [label="gini = 0.0\nsamples = 166\nvalue = [0, 274, 0]", fillcolor="#39e581"] ;
507 -> 517 ;
518 [label="gini = 0.0\nsamples = 1\nvalue = [3, 0, 0]", fillcolor="#e58139"] ;
506 -> 518 ;
519 [label="X[7] <= 160.0\ngini = 0.278\nsamples = 12\nvalue = [4, 20, 0]", fillcolor="#61ea9a"] ;
501 -> 519 ;
520 [label="X[3] <= 18.557\ngini = 0.444\nsamples = 2\nvalue = [4, 2, 0]", fillcolor="#f2c09c"] ;
519 -> 520 ;
521 [label="gini = 0.0\nsamples = 1\nvalue = [0, 2, 0]", fillcolor="#39e581"] ;
520 -> 521 ;
522 [label="gini = 0.0\nsamples = 1\nvalue = [4, 0, 0]", fillcolor="#e58139"] ;
520 -> 522 ;
523 [label="gini = 0.0\nsamples = 10\nvalue = [0, 18, 0]", fillcolor="#39e581"] ;
519 -> 523 ;
524 [label="X[3] <= 17.599\ngini = 0.062\nsamples = 1011\nvalue = [52, 1565, 0]", fillcolor="#40e685"] ;
0 -> 524 [labeldistance=2.5, labelangle=-45, headlabel="False"] ;
525 [label="X[9] <= 54463.0\ngini = 0.366\nsamples = 120\nvalue = [49, 154, 0]", fillcolor="#78eda9"] ;
524 -> 525 ;
526 [label="X[13] <= 538.633\ngini = 0.482\nsamples = 69\nvalue = [47, 69, 0]", fillcolor="#c0f7d7"] ;
525 -> 526 ;
527 [label="X[2] <= 17.271\ngini = 0.497\nsamples = 53\nvalue = [47, 40, 0]", fillcolor="#fbece2"] ;
526 -> 527 ;
528 [label="X[11] <= -612.728\ngini = 0.302\nsamples = 18\nvalue = [22, 5, 0]", fillcolor="#eb9e66"] ;
527 -> 528 ;
529 [label="X[4] <= 16.439\ngini = 0.375\nsamples = 3\nvalue = [1, 3, 0]", fillcolor="#7beeab"] ;
528 -> 529 ;
530 [label="gini = 0.0\nsamples = 1\nvalue = [1, 0, 0]", fillcolor="#e58139"] ;
529 -> 530 ;
531 [label="gini = 0.0\nsamples = 2\nvalue = [0, 3, 0]", fillcolor="#39e581"] ;
529 -> 531 ;
532 [label="X[7] <= 711.0\ngini = 0.159\nsamples = 15\nvalue = [21, 2, 0]", fillcolor="#e78d4c"] ;
528 -> 532 ;
533 [label="gini = 0.0\nsamples = 14\nvalue = [21, 0, 0]", fillcolor="#e58139"] ;
532 -> 533 ;
534 [label="gini = 0.0\nsamples = 1\nvalue = [0, 2, 0]", fillcolor="#39e581"] ;
532 -> 534 ;
535 [label="X[9] <= 51874.0\ngini = 0.486\nsamples = 35\nvalue = [25, 35, 0]", fillcolor="#c6f8db"] ;
527 -> 535 ;
536 [label="gini = 0.0\nsamples = 2\nvalue = [4, 0, 0]", fillcolor="#e58139"] ;
535 -> 536 ;
537 [label="X[9] <= 52499.5\ngini = 0.469\nsamples = 33\nvalue = [21, 35, 0]", fillcolor="#b0f5cd"] ;
535 -> 537 ;
538 [label="X[2] <= 17.858\ngini = 0.124\nsamples = 8\nvalue = [1, 14, 0]", fillcolor="#47e78a"] ;
537 -> 538 ;
539 [label="gini = 0.0\nsamples = 7\nvalue = [0, 14, 0]", fillcolor="#39e581"] ;
538 -> 539 ;
540 [label="gini = 0.0\nsamples = 1\nvalue = [1, 0, 0]", fillcolor="#e58139"] ;
538 -> 540 ;
541 [label="X[12] <= 456.835\ngini = 0.5\nsamples = 25\nvalue = [20, 21, 0]", fillcolor="#f6fef9"] ;
537 -> 541 ;
542 [label="gini = 0.0\nsamples = 7\nvalue = [10, 0, 0]", fillcolor="#e58139"] ;
541 -> 542 ;
543 [label="X[11] <= -670.726\ngini = 0.437\nsamples = 18\nvalue = [10, 21, 0]", fillcolor="#97f1bd"] ;
541 -> 543 ;
544 [label="gini = 0.0\nsamples = 5\nvalue = [0, 13, 0]", fillcolor="#39e581"] ;
543 -> 544 ;
545 [label="X[1] <= 18.149\ngini = 0.494\nsamples = 13\nvalue = [10, 8, 0]", fillcolor="#fae6d7"] ;
543 -> 545 ;
546 [label="X[3] <= 17.121\ngini = 0.32\nsamples = 4\nvalue = [1, 4, 0]", fillcolor="#6aeca0"] ;
545 -> 546 ;
547 [label="gini = 0.0\nsamples = 1\nvalue = [1, 0, 0]", fillcolor="#e58139"] ;
546 -> 547 ;
548 [label="gini = 0.0\nsamples = 3\nvalue = [0, 4, 0]", fillcolor="#39e581"] ;
546 -> 548 ;
549 [label="X[11] <= -475.769\ngini = 0.426\nsamples = 9\nvalue = [9, 4, 0]", fillcolor="#f1b991"] ;
545 -> 549 ;
550 [label="X[0] <= 19.102\ngini = 0.219\nsamples = 4\nvalue = [7, 1, 0]", fillcolor="#e99355"] ;
549 -> 550 ;
551 [label="gini = 0.0\nsamples = 1\nvalue = [0, 1, 0]", fillcolor="#39e581"] ;
550 -> 551 ;
552 [label="gini = 0.0\nsamples = 3\nvalue = [7, 0, 0]", fillcolor="#e58139"] ;
550 -> 552 ;
553 [label="X[7] <= 90.5\ngini = 0.48\nsamples = 5\nvalue = [2, 3, 0]", fillcolor="#bdf6d5"] ;
549 -> 553 ;
554 [label="X[2] <= 17.89\ngini = 0.444\nsamples = 3\nvalue = [2, 1, 0]", fillcolor="#f2c09c"] ;
553 -> 554 ;
555 [label="gini = 0.0\nsamples = 2\nvalue = [2, 0, 0]", fillcolor="#e58139"] ;
554 -> 555 ;
556 [label="gini = 0.0\nsamples = 1\nvalue = [0, 1, 0]", fillcolor="#39e581"] ;
554 -> 556 ;
557 [label="gini = 0.0\nsamples = 2\nvalue = [0, 2, 0]", fillcolor="#39e581"] ;
553 -> 557 ;
558 [label="gini = 0.0\nsamples = 16\nvalue = [0, 29, 0]", fillcolor="#39e581"] ;
526 -> 558 ;
559 [label="X[5] <= 531.5\ngini = 0.045\nsamples = 51\nvalue = [2, 85, 0]", fillcolor="#3ee684"] ;
525 -> 559 ;
560 [label="gini = 0.0\nsamples = 1\nvalue = [1, 0, 0]", fillcolor="#e58139"] ;
559 -> 560 ;
561 [label="X[12] <= 477.752\ngini = 0.023\nsamples = 50\nvalue = [1, 85, 0]", fillcolor="#3be582"] ;
559 -> 561 ;
562 [label="X[0] <= 17.355\ngini = 0.444\nsamples = 2\nvalue = [1, 2, 0]", fillcolor="#9cf2c0"] ;
561 -> 562 ;
563 [label="gini = 0.0\nsamples = 1\nvalue = [1, 0, 0]", fillcolor="#e58139"] ;
562 -> 563 ;
564 [label="gini = 0.0\nsamples = 1\nvalue = [0, 2, 0]", fillcolor="#39e581"] ;
562 -> 564 ;
565 [label="gini = 0.0\nsamples = 48\nvalue = [0, 83, 0]", fillcolor="#39e581"] ;
561 -> 565 ;
566 [label="X[4] <= 17.862\ngini = 0.004\nsamples = 891\nvalue = [3, 1411, 0]", fillcolor="#39e581"] ;
524 -> 566 ;
567 [label="X[2] <= 18.198\ngini = 0.032\nsamples = 77\nvalue = [2, 122, 0]", fillcolor="#3ce583"] ;
566 -> 567 ;
568 [label="gini = 0.0\nsamples = 56\nvalue = [0, 94, 0]", fillcolor="#39e581"] ;
567 -> 568 ;
569 [label="X[13] <= 349.05\ngini = 0.124\nsamples = 21\nvalue = [2, 28, 0]", fillcolor="#47e78a"] ;
567 -> 569 ;
570 [label="X[13] <= 256.424\ngini = 0.32\nsamples = 8\nvalue = [2, 8, 0]", fillcolor="#6aeca0"] ;
569 -> 570 ;
571 [label="X[2] <= 18.207\ngini = 0.198\nsamples = 7\nvalue = [1, 8, 0]", fillcolor="#52e891"] ;
570 -> 571 ;
572 [label="gini = 0.0\nsamples = 1\nvalue = [1, 0, 0]", fillcolor="#e58139"] ;
571 -> 572 ;
573 [label="gini = 0.0\nsamples = 6\nvalue = [0, 8, 0]", fillcolor="#39e581"] ;
571 -> 573 ;
574 [label="gini = 0.0\nsamples = 1\nvalue = [1, 0, 0]", fillcolor="#e58139"] ;
570 -> 574 ;
575 [label="gini = 0.0\nsamples = 13\nvalue = [0, 20, 0]", fillcolor="#39e581"] ;
569 -> 575 ;
576 [label="X[13] <= 203.942\ngini = 0.002\nsamples = 814\nvalue = [1, 1289, 0]", fillcolor="#39e581"] ;
566 -> 576 ;
577 [label="X[0] <= 19.571\ngini = 0.009\nsamples = 136\nvalue = [1, 215, 0]", fillcolor="#3ae582"] ;
576 -> 577 ;
578 [label="gini = 0.0\nsamples = 130\nvalue = [0, 208, 0]", fillcolor="#39e581"] ;
577 -> 578 ;
579 [label="X[10] <= 296.0\ngini = 0.219\nsamples = 6\nvalue = [1, 7, 0]", fillcolor="#55e993"] ;
577 -> 579 ;
580 [label="gini = 0.0\nsamples = 1\nvalue = [1, 0, 0]", fillcolor="#e58139"] ;
579 -> 580 ;
581 [label="gini = 0.0\nsamples = 5\nvalue = [0, 7, 0]", fillcolor="#39e581"] ;
579 -> 581 ;
582 [label="gini = 0.0\nsamples = 678\nvalue = [0, 1074, 0]", fillcolor="#39e581"] ;
576 -> 582 ;
}